0.99617735411607011,0.35399268739546885,-0.51577160604211314,-0.18368428242391821,-0.71722996084294821,0.73374456621894479,-0.183526157862409,0.3019286784914621,-0.19423465887994373,0.80039701532367546,-0.14978435825824432,-0.16613247254886288,-0.27061398261385761,-0.20119514574379216
-0.7704910418280142,-0.54783890836334059,-0.34982074842358957,0.10862620988438842,0.94044687029431184,-0.71854967370848954,0.40442894646764693,-0.037272697463346827,-0.86569851082826821,-0.4507162399375173,0.85796500105585216,-0.055976375882612839,0.0085898169084517306,-0.16371398536367776
-0.61717382448352365,0.047527481253759385,0.74393458339119323,0.42240811341489781,-0.28431670554795074,0.98870463213328352,0.62643307549229865,-0.73769983005650897,0.087762056397918231,0.73441024830094115,0.0080151418769345284,0.66359887598918998,0.20548482081445663,-0.32131732368430765
0.24499333157854708,-0.99909416346776903,0.5755645661906974,-0.82314333209722812,-0.87403666547189474,0.58017277282380331,-0.089179117412772291,0.47889610161765961,-0.10621419260628828,0.41458939167551367,-0.079631107284175995,-0.93363018454548463,0.083777473031788841,-0.024431781988758283
-0.44909395136123531,-0.92048855658021966,0.60519238723521362,-0.83631605455712887,0.28358755764713983,-0.72202679095730948,-0.16417596237129017,0.71205074460737006,-0.95340794980330013,0.48327820561549784,0.45741594699281718,-0.764259370694931,0.42635528397233036,-0.010423195251388018
-0.96748632102373566,0.16114049744192949,-0.49623584065640269,0.24930669652798154,0.72718524969097698,-0.29392205687422512,-0.81212723741796955,-0.5559680209202047,-0.56232657419515464,0.11215188685721533,0.84694170617930697,0.91705037679497581,0.59281257500828399,0.13033459590769003
0.72349641096289208,-0.7897536670847094,-0.91547997508054957,-0.56348958545168171,-0.71162908444333794,-0.39706881155634588,0.92054647331993267,-0.60895724422226905,-0.56777009804532685,-0.074565014509547778,-0.64166671907970674,0.93101130820469424,0.98010100632172215,-0.92423981908793729
-0.19272933182669361,-0.92785929724161442,0.70562629906245267,-0.56846975328861404,-0.38260225057471819,-0.83175922182792039,-0.3936041597906772,-0.5156996120177324,0.86944326079965517,-0.73204259037553143,-0.53549813176890182,-0.38008296097037686,-0.89298230657850364,0.24037527328015984
